{
  "_meta": {
    "schema": "state_moment.schema.json",
    "dimension_order_score": [
      "pdi",
      "idv",
      "mas",
      "uai",
      "lto",
      "ivr"
    ],
    "matrix_field": "M",
    "definition": "M(s) = sum_i w_s[i] * (mu_i - x_s) outer (mu_i - x_s) = Cov_w(mu;w) + weight_sum * (mu_bar - x_s)(mu_bar - x_s)^T"
  },
  "moments": [
    {
      "iso3": "AFG",
      "M": [
        [
          439.9831409907034,
          -73.76985919582218,
          27.32714722341734,
          450.3936992236488,
          262.515240220957,
          221.54622482417534
        ],
        [
          -73.76985919582218,
          506.04045606246757,
          15.125422178878397,
          -20.463304777403003,
          4.410054134838566,
          50.6376938910092
        ],
        [
          27.32714722341734,
          15.125422178878397,
          341.6263873879427,
          38.703166659482314,
          47.026954630145156,
          40.52173238158197
        ],
        [
          450.3936992236488,
          -20.463304777403003,
          38.703166659482314,
          1972.722438538966,
          667.8721304297399,
          1107.2716062045351
        ],
        [
          262.515240220957,
          4.410054134838566,
          47.026954630145156,
          667.8721304297399,
          1200.3880774111508,
          516.8765245677791
        ],
        [
          221.54622482417534,
          50.6376938910092,
          40.52173238158197,
          1107.2716062045351,
          516.8765245677791,
          1527.975129658856
        ]
      ],
      "eigenvalues": [
        3338.180488989007,
        861.8584073615694,
        681.4114300095495,
        489.82607932254706,
        342.5798364923261,
        274.8793878750864
      ],
      "eigenvectors": [
        [
          0.1877792476179941,
          -0.13904967512627134,
          0.3105403718438017,
          0.10878410712996384,
          0.24281927227711922,
          0.8821415070798782
        ],
        [
          0.0008233561423400815,
          0.058567397544614985,
          -0.3870285197702032,
          -0.8847299924741533,
          0.005138291254847618,
          0.2529911960793572
        ],
        [
          0.02446686620820651,
          -0.04025218768017699,
          -0.03631231746946956,
          -0.05468344851517005,
          0.9630006303741815,
          -0.2571032006847141
        ],
        [
          0.7070349174201274,
          0.20981857000661597,
          0.54627800547198,
          -0.297191359510116,
          -0.07301432530207666,
          -0.25299078659085356
        ],
        [
          0.38105155324212914,
          -0.8859723888177474,
          -0.21876823636864698,
          0.002544430319049625,
          -0.08689601734790742,
          -0.12014868631786688
        ],
        [
          0.5648371340723861,
          0.3829411222525477,
          -0.637319242949169,
          0.33778602786081896,
          0.027571277490802897,
          0.11523764778528488
        ]
      ],
      "invariants": {
        "I1_trace": 5988.735630050087,
        "I2_von_mises": 3195.1354973185366,
        "det": 9.042760487493688e+16
      },
      "anisotropy": 0.9176559240035773,
      "quality_flags": {
        "monocivilizational": false,
        "low_evidence": true,
        "computed_from_imputed": true,
        "x_score_provenance": "imputed_governance",
        "diagonal_inflated_by_prior": true
      },
      "decomposition": {
        "weighted_barycentre_mu_bar": [
          69.95829163654683,
          36.621822017223245,
          52.3580428279738,
          52.46548088793083,
          48.20294268039757,
          40.740229910333156
        ],
        "intra_civilizational_covariance": [
          [
            134.56034189735433,
            -93.1641333583085,
            6.282201358323717,
            23.220150931620154,
            13.430785686293069,
            -115.02905438488469
          ],
          [
            -93.1641333583085,
            225.97267416735906,
            12.19217049471891,
            -80.00289865368335,
            -30.307421521566557,
            3.7257174518607528
          ],
          [
            6.282201358323717,
            12.19217049471891,
            39.98019188391625,
            -25.90391888845886,
            9.354629817135223,
            -10.382982912999625
          ],
          [
            23.220150931620154,
            -80.00289865368335,
            -25.90391888845886,
            267.6779158502564,
            -96.80651336166376,
            73.99986501893787
          ],
          [
            13.430785686293069,
            -30.307421521566557,
            9.354629817135223,
            -96.80651336166376,
            192.65395945948674,
            -85.6231598540423
          ],
          [
            -115.02905438488469,
            3.7257174518607528,
            -10.382982912999625,
            73.99986501893787,
            -85.6231598540423,
            228.62579811141956
          ]
        ],
        "bias_term": [
          [
            139.14641285180534,
            19.394274162486468,
            21.044945865093805,
            427.1735482920293,
            249.08445453466436,
            336.57527920906057
          ],
          [
            19.394274162486468,
            2.7031805030452856,
            2.9332516841595297,
            59.539593876280655,
            34.71747565640532,
            46.91197643914872
          ],
          [
            21.044945865093805,
            2.9332516841595297,
            3.182904520409149,
            64.60708554794162,
            37.67232481301022,
            50.904715294581976
          ],
          [
            427.1735482920293,
            59.539593876280655,
            64.60708554794162,
            1311.4045602795802,
            764.6786437914035,
            1033.2717411855972
          ],
          [
            249.08445453466436,
            34.71747565640532,
            37.67232481301022,
            764.6786437914035,
            445.883326916295,
            602.4996844218215
          ],
          [
            336.57527920906057,
            46.91197643914872,
            50.904715294581976,
            1033.2717411855972,
            602.4996844218215,
            814.1274809240424
          ]
        ],
        "prior_variance_inflation": [
          [
            166.27638624154415,
            0.0,
            0.0,
            0.0,
            0.0,
            0.0
          ],
          [
            0.0,
            277.3646013920633,
            0.0,
            0.0,
            0.0,
            0.0
          ],
          [
            0.0,
            0.0,
            298.46329098361736,
            0.0,
            0.0,
            0.0
          ],
          [
            0.0,
            0.0,
            0.0,
            393.6399624091296,
            0.0,
            0.0
          ],
          [
            0.0,
            0.0,
            0.0,
            0.0,
            561.8507910353687,
            0.0
          ],
          [
            0.0,
            0.0,
            0.0,
            0.0,
            0.0,
            485.2218506233945
          ]
        ],
        "trace_intra": 1089.4708813697923,
        "trace_bias": 2716.4478659951774,
        "trace_prior_inflation": 2182.8168826851174
      }
    },
    {
      "iso3": "AGO",
      "M": [
        [
          296.08281846325093,
          -75.88140603478384,
          -10.835944915518349,
          112.98301829114769,
          41.93984928455045,
          -70.68796567124923
        ],
        [
          -75.88140603478384,
          499.27040977379306,
          11.413819708464679,
          -2.874179404826405,
          48.10561648759341,
          30.911569024824463
        ],
        [
          -10.835944915518349,
          11.413819708464679,
          340.0986115496955,
          -43.35121505108587,
          -6.929092370757064,
          8.877563757770496
        ],
        [
          112.98301829114769,
          -2.874179404826405,
          -43.35121505108587,
          904.3302573715248,
          94.10704172137497,
          109.87367052125758
        ],
        [
          41.93984928455045,
          48.10561648759341,
          -6.929092370757064,
          94.10704172137497,
          823.7781750411991,
          -40.272467429378864
        ],
        [
          -70.68796567124923,
          30.911569024824463,
          8.877563757770496,
          109.87367052125758,
          -40.272467429378864,
          736.3957720947517
        ]
      ],
      "eigenvalues": [
        1004.6515147922071,
        835.6053925655514,
        689.8190185147299,
        494.37624811171366,
        335.74011093713113,
        239.7637593728819
      ],
      "eigenvectors": [
        [
          0.1342435976297545,
          -0.08723589977050163,
          0.2543370825726916,
          0.18400292548960612,
          0.052746135902630345,
          0.934367150146917
        ],
        [
          0.029956470775079125,
          -0.0353563528866771,
          -0.3346879380371637,
          -0.9028168314809204,
          -0.037213019700726845,
          0.2633884626577077
        ],
        [
          -0.05851992002934759,
          0.0032959678431045375,
          -0.0758589099868687,
          -0.02153856300800369,
          0.9949056368003788,
          -0.022557603988945032
        ],
        [
          0.8542203251494318,
          0.22000113286918296,
          0.39115999638984666,
          -0.1799389133429305,
          0.07142643627534845,
          -0.1772603918762996
        ],
        [
          0.4297844713001155,
          -0.7603996178146767,
          -0.4437383250320161,
          0.19407362402673042,
          -0.0029673771445345035,
          -0.0500065144193094
        ],
        [
          0.2514947904922888,
          0.6037556504591335,
          -0.6838363945115258,
          0.2838277619114533,
          -0.0297534712060953,
          0.152163737319074
        ]
      ],
      "invariants": {
        "I1_trace": 3599.9560442942156,
        "I2_von_mises": 810.6294037840269,
        "det": 2.304603449658591e+16
      },
      "anisotropy": 0.7613463416491515,
      "quality_flags": {
        "monocivilizational": false,
        "low_evidence": true,
        "computed_from_imputed": true,
        "x_score_provenance": "imputed_governance",
        "diagonal_inflated_by_prior": true
      },
      "decomposition": {
        "weighted_barycentre_mu_bar": [
          70.10846329667079,
          32.25458906786307,
          51.99853891259179,
          58.7854373356987,
          43.6811920529629,
          46.861806329184084
        ],
        "intra_civilizational_covariance": [
          [
            117.09395901971169,
            -97.80303758686112,
            -7.803836551687244,
            55.80250324961448,
            7.303194409277791,
            -86.37128063938
          ],
          [
            -97.80303758686112,
            184.10372830893857,
            16.642445273429157,
            -101.47735148481007,
            -11.622492614970898,
            3.866961198820544
          ],
          [
            -7.803836551687244,
            16.642445273429157,
            40.91211895267594,
            -29.7128368102261,
            1.3322497987558974,
            12.618260767067145
          ],
          [
            55.80250324961448,
            -101.47735148481007,
            -29.7128368102261,
            253.49319031859798,
            -61.68811580730268,
            39.330353482401335
          ],
          [
            7.303194409277791,
            -11.622492614970898,
            1.3322497987558974,
            -61.68811580730268,
            167.55567191754326,
            -83.00353629535614
          ],
          [
            -86.37128063938,
            3.866961198820544,
            12.618260767067145,
            39.330353482401335,
            -83.00353629535614,
            231.82549379081792
          ]
        ],
        "bias_term": [
          [
            12.712473201995255,
            21.921631552077464,
            -3.0321083638311146,
            57.1805150415335,
            34.63665487527287,
            15.683314968130887
          ],
          [
            21.921631552077464,
            37.8020800727913,
            -5.228625564964471,
            98.60317207998382,
            59.72810910256446,
            27.044607826003986
          ],
          [
            -3.0321083638311146,
            -5.228625564964471,
            0.7232016134021527,
            -13.638378240859737,
            -8.261342169512941,
            -3.7406970092966434
          ],
          [
            57.1805150415335,
            98.60317207998382,
            -13.638378240859737,
            257.19710464379705,
            155.79515752867775,
            70.54331703885627
          ],
          [
            34.63665487527287,
            59.72810910256446,
            -8.261342169512941,
            155.79515752867775,
            94.3717120882873,
            42.731068865977335
          ],
          [
            15.683314968130887,
            27.044607826003986,
            -3.7406970092966434,
            70.54331703885627,
            42.731068865977335,
            19.348427680539242
          ]
        ],
        "prior_variance_inflation": [
          [
            166.27638624154415,
            0.0,
            0.0,
            0.0,
            0.0,
            0.0
          ],
          [
            0.0,
            277.3646013920633,
            0.0,
            0.0,
            0.0,
            0.0
          ],
          [
            0.0,
            0.0,
            298.46329098361736,
            0.0,
            0.0,
            0.0
          ],
          [
            0.0,
            0.0,
            0.0,
            393.6399624091296,
            0.0,
            0.0
          ],
          [
            0.0,
            0.0,
            0.0,
            0.0,
            561.8507910353687,
            0.0
          ],
          [
            0.0,
            0.0,
            0.0,
            0.0,
            0.0,
            485.2218506233945
          ]
        ],
        "trace_intra": 994.9841623082852,
        "trace_bias": 422.15499930081234,
        "trace_prior_inflation": 2182.8168826851174
      }
    },
    {
      "iso3": "ALB",
      "M": [
        [
          386.9005506496781,
          -235.57897290449472,
          -15.331524197746916,
          19.004516869699188,
          -44.88564324587391,
          -71.15713897652168
        ],
        [
          -235.57897290449472,
          636.2344381309849,
          2.352744194796964,
          -31.886753810368006,
          75.48126206040958,
          -24.510838889830666
        ],
        [
          -15.331524197746916,
          2.352744194796964,
          399.25878131061137,
          -40.05868003889692,
          16.425128892461533,
          25.479907653799458
        ],
        [
          19.004516869699188,
          -31.886753810368006,
          -40.05868003889692,
          787.5967786581889,
          93.51478081474298,
          -39.55075279682273
        ],
        [
          -44.88564324587391,
          75.48126206040958,
          16.425128892461533,
          93.51478081474298,
          817.49413482086,
          -123.15058420861473
        ],
        [
          -71.15713897652168,
          -24.510838889830666,
          25.479907653799458,
          -39.55075279682273,
          -123.15058420861473,
          729.2097818052606
        ]
      ],
      "eigenvalues": [
        971.9744765715542,
        827.7615183147993,
        720.3194397418915,
        612.6010602884877,
        390.9282549203635,
        233.1097155384871
      ],
      "eigenvectors": [
        [
          0.07138462007785357,
          0.4299834536329753,
          -0.25772249973161215,
          0.14126012138555455,
          -0.030795128875314874,
          0.8501145904488288
        ],
        [
          -0.20888961196614317,
          -0.6738614591427177,
          0.2251855199795999,
          -0.4479511091142957,
          -0.005607888280968024,
          0.5008749354065338
        ],
        [
          0.0265541007312153,
          -0.08611731722304664,
          -0.016416706031395712,
          0.14933345504560852,
          0.983404595028339,
          0.0471603737583607
        ],
        [
          -0.4371398194580338,
          0.5442145166751365,
          0.6494046785492898,
          -0.2798338714218932,
          0.11236933603924538,
          0.008890347893785545
        ],
        [
          -0.7450282654838745,
          -0.1848318605187784,
          -0.059040277220409096,
          0.6304810776344484,
          -0.09423207857771483,
          0.02997063137174426
        ],
        [
          0.4521127156336321,
          -0.15256642597709982,
          0.6763053272233741,
          0.5303503712674213,
          -0.10212277801132454,
          0.15240769109201488
        ]
      ],
      "invariants": {
        "I1_trace": 3756.694465375584,
        "I2_von_mises": 754.0919946421781,
        "det": 3.2353435850266172e+16
      },
      "anisotropy": 0.7601688921290042,
      "quality_flags": {
        "monocivilizational": false,
        "low_evidence": true,
        "computed_from_imputed": true,
        "x_score_provenance": "imputed_governance",
        "diagonal_inflated_by_prior": true
      },
      "decomposition": {
        "weighted_barycentre_mu_bar": [
          70.28949240688017,
          31.828685034008714,
          50.75921478629302,
          65.70445011790515,
          46.12562090747996,
          46.31522935109445
        ],
        "intra_civilizational_covariance": [
          [
            155.40724248937175,
            -148.94571896563025,
            -32.69691816935434,
            88.63996029746755,
            10.101476611222932,
            -100.58427231829215
          ],
          [
            -148.94571896563025,
            243.78742457931668,
            25.42069253441165,
            -124.38951039765374,
            2.4371352020370534,
            14.579756625640945
          ],
          [
            -32.69691816935434,
            25.42069253441165,
            96.1715844615075,
            -21.51676064231632,
            31.066620266002996,
            17.64430687872123
          ],
          [
            88.63996029746755,
            -124.38951039765374,
            -21.51676064231632,
            319.60349139539284,
            34.8022203103625,
            -8.129897307586106
          ],
          [
            10.101476611222932,
            2.4371352020370534,
            31.066620266002996,
            34.8022203103625,
            209.281398737777,
            -98.33933491153327
          ],
          [
            -100.58427231829215,
            14.579756625640945,
            17.64430687872123,
            -8.129897307586106,
            -98.33933491153327,
            230.7098409065688
          ]
        ],
        "bias_term": [
          [
            65.21692191876214,
            -86.63325393886437,
            17.36539397160733,
            -69.63544342776841,
            -54.987119857096836,
            29.42713334177051
          ],
          [
            -86.63325393886437,
            115.08241215960497,
            -23.06794833961457,
            92.50275658728589,
            73.04412685837258,
            -39.090595515471634
          ],
          [
            17.36539397160733,
            -23.06794833961457,
            4.623905865486451,
            -18.541919396580514,
            -14.6414913735414,
            7.835600775078193
          ],
          [
            -69.63544342776841,
            92.50275658728589,
            -18.541919396580514,
            74.35332485366663,
            58.71256050438059,
            -31.420855489236683
          ],
          [
            -54.987119857096836,
            73.04412685837258,
            -14.6414913735414,
            58.71256050438059,
            46.36194504771442,
            -24.81124929708149
          ],
          [
            29.42713334177051,
            -39.090595515471634,
            7.835600775078193,
            -31.420855489236683,
            -24.81124929708149,
            13.278090275297341
          ]
        ],
        "prior_variance_inflation": [
          [
            166.27638624154415,
            0.0,
            0.0,
            0.0,
            0.0,
            0.0
          ],
          [
            0.0,
            277.3646013920633,
            0.0,
            0.0,
            0.0,
            0.0
          ],
          [
            0.0,
            0.0,
            298.46329098361736,
            0.0,
            0.0,
            0.0
          ],
          [
            0.0,
            0.0,
            0.0,
            393.6399624091296,
            0.0,
            0.0
          ],
          [
            0.0,
            0.0,
            0.0,
            0.0,
            561.8507910353687,
            0.0
          ],
          [
            0.0,
            0.0,
            0.0,
            0.0,
            0.0,
            485.2218506233945
          ]
        ],
        "trace_intra": 1254.9609825699347,
        "trace_bias": 318.916600120532,
        "trace_prior_inflation": 2182.8168826851174
      }
    },
    {
      "iso3": "AND",
      "M": [
        [
          299.57572852642045,
          -142.52476820086622,
          -31.237067576208457,
          66.50229322129091,
          1.782310173908435,
          -86.19187561928601
        ],
        [
          -142.52476820086622,
          628.3735686346554,
          3.4493884903036265,
          -16.527212132455684,
          75.68163912319937,
          -18.02743852977268
        ],
        [
          -31.237067576208457,
          3.4493884903036265,
          390.10921173452107,
          -49.51849004324273,
          6.081277906966324,
          26.049843467733936
        ],
        [
          66.50229322129091,
          -16.527212132455684,
          -49.51849004324273,
          772.4864440316317,
          89.32301341449397,
          -18.36597347227312
        ],
        [
          1.782310173908435,
          75.68163912319937,
          6.081277906966324,
          89.32301341449397,
          803.2209974027394,
          -106.50511996226342
        ],
        [
          -86.19187561928601,
          -18.02743852977268,
          26.049843467733936,
          -18.36597347227312,
          -106.50511996226342,
          716.5872359538772
        ]
      ],
      "eigenvalues": [
        939.4495645329549,
        770.5556450763881,
        703.0657425825107,
        592.0322529849191,
        381.70973404045054,
        223.54024706662287
      ],
      "eigenvectors": [
        [
          -0.08311108971024207,
          0.24263854933046752,
          -0.26129166764487216,
          -0.11898203550273426,
          0.0766893009452392,
          0.9197324458305798
        ],
        [
          -0.1407562254356821,
          -0.5228431239054034,
          0.428657828349855,
          0.6439375622117214,
          0.0360693634173375,
          0.32728983481895446
        ],
        [
          0.05993075271356646,
          -0.11530465082635062,
          0.04378005798572148,
          -0.11341839411337097,
          -0.9772857573261521,
          0.11508807628924177
        ],
        [
          -0.4800266080730705,
          0.7265849967231955,
          0.34560113512397805,
          0.3063663360426665,
          -0.14526125664770603,
          -0.08513159775638716
        ],
        [
          -0.7372437405690897,
          -0.32940500406616896,
          0.18764590221351304,
          -0.5553146635814868,
          0.06606463065382678,
          -0.003756948002647711
        ],
        [
          0.44241909902378823,
          0.13428710099774943,
          0.7690327092653535,
          -0.3950813228037586,
          0.11074715601021047,
          0.16268627235225624
        ]
      ],
      "invariants": {
        "I1_trace": 3610.3531862838445,
        "I2_von_mises": 718.7029862146759,
        "det": 2.571033537275329e+16
      },
      "anisotropy": 0.7620518913351614,
      "quality_flags": {
        "monocivilizational": false,
        "low_evidence": true,
        "computed_from_imputed": true,
        "x_score_provenance": "imputed_governance",
        "diagonal_inflated_by_prior": true
      },
      "decomposition": {
        "weighted_barycentre_mu_bar": [
          71.75495109227742,
          30.083455608171576,
          50.306203271903755,
          67.18985118525286,
          45.88383878304013,
          45.908355430048104
        ],
        "intra_civilizational_covariance": [
          [
            130.3704993578682,
            -122.44810291891059,
            -34.865970188863336,
            80.97076692469733,
            12.510728777726197,
            -88.7796547519039
          ],
          [
            -122.44810291891059,
            213.387217326684,
            28.324830742002508,
            -115.7058676367992,
            2.140355182245738,
            -0.28870116352154795
          ],
          [
            -34.865970188863336,
            28.324830742002508,
            87.14962835819901,
            -31.591723968062546,
            19.374031144785157,
            22.84352660835772
          ],
          [
            80.97076692469733,
            -115.7058676367992,
            -31.591723968062546,
            307.3722726863444,
            36.32466344594849,
            -5.582353707196418
          ],
          [
            12.510728777726197,
            2.140355182245738,
            19.374031144785157,
            36.32466344594849,
            202.07176373756363,
            -97.02602583504449
          ],
          [
            -88.7796547519039,
            -0.28870116352154795,
            22.84352660835772,
            -5.582353707196418,
            -97.02602583504449,
            229.07895310925966
          ]
        ],
        "bias_term": [
          [
            2.9288429270080756,
            -20.076665281955606,
            3.6289026126548607,
            -14.468473703406373,
            -10.728418603817735,
            2.5877791326178734
          ],
          [
            -20.076665281955606,
            137.62174991590808,
            -24.87544225169879,
            99.1786555043433,
            73.54128394095348,
            -17.738737366251122
          ],
          [
            3.6289026126548607,
            -24.87544225169879,
            4.496292392704665,
            -17.926766075180094,
            -13.292753237818767,
            3.2063168593762
          ],
          [
            -14.468473703406373,
            99.1786555043433,
            -17.926766075180094,
            71.47420893615731,
            52.99834996854531,
            -12.783619765076676
          ],
          [
            -10.728418603817735,
            73.54128394095348,
            -13.292753237818767,
            52.99834996854531,
            39.298442629806864,
            -9.479094127218918
          ],
          [
            2.5877791326178734,
            -17.738737366251122,
            3.2063168593762,
            -12.783619765076676,
            -9.479094127218918,
            2.286432221223057
          ]
        ],
        "prior_variance_inflation": [
          [
            166.27638624154415,
            0.0,
            0.0,
            0.0,
            0.0,
            0.0
          ],
          [
            0.0,
            277.3646013920633,
            0.0,
            0.0,
            0.0,
            0.0
          ],
          [
            0.0,
            0.0,
            298.46329098361736,
            0.0,
            0.0,
            0.0
          ],
          [
            0.0,
            0.0,
            0.0,
            393.6399624091296,
            0.0,
            0.0
          ],
          [
            0.0,
            0.0,
            0.0,
            0.0,
            561.8507910353687,
            0.0
          ],
          [
            0.0,
            0.0,
            0.0,
            0.0,
            0.0,
            485.2218506233945
          ]
        ],
        "trace_intra": 1169.430334575919,
        "trace_bias": 258.10596902280804,
        "trace_prior_inflation": 2182.8168826851174
      }
    },
    {
      "iso3": "ARE",
      "M": [
        [
          298.34352004592824,
          -72.08151024268712,
          -37.62441705064339,
          39.85719425604142,
          72.72905136421369,
          -69.02439204134662
        ],
        [
          -72.08151024268712,
          454.7728490081505,
          31.249256565653067,
          -102.87036715638536,
          -11.264620882019813,
          -24.82790264863743
        ],
        [
          -37.62441705064339,
          31.249256565653067,
          363.996013122139,
          -37.835622410110176,
          -4.202726032848105,
          18.126919478432658
        ],
        [
          39.85719425604142,
          -102.87036715638536,
          -37.835622410110176,
          735.7281442173062,
          -61.96389853964398,
          41.02622645866649
        ],
        [
          72.72905136421369,
          -11.264620882019813,
          -4.202726032848105,
          -61.96389853964398,
          862.1833088884505,
          -97.56542258469838
        ],
        [
          -69.02439204134662,
          -24.82790264863743,
          18.126919478432658,
          41.02622645866649,
          -97.56542258469838,
          688.9815901523326
        ]
      ],
      "eigenvalues": [
        943.81295528957,
        767.0504713831573,
        649.4964318827723,
        441.10544928207753,
        352.87677917027065,
        249.66333842645977
      ],
      "eigenvectors": [
        [
          -0.11140410736839088,
          -0.1914423452866138,
          0.10018342273413369,
          -0.29442393414435347,
          0.06922379832022912,
          0.9216424728987748
        ],
        [
          -0.055864426111113696,
          0.345637952285217,
          0.03916452017226196,
          0.81921674163371,
          0.3415436178174394,
          0.2968359808888693
        ],
        [
          0.0011688079309177181,
          0.12969454976260808,
          -0.07223216381803399,
          0.2684650139396432,
          -0.9324740926335049,
          0.19073299404604727
        ],
        [
          0.33662650107116415,
          -0.8506692204762398,
          0.09529297897015816,
          0.3915155902207585,
          -0.016656775635513852,
          -0.02004541617041789
        ],
        [
          -0.8381016783566554,
          -0.3189684253198036,
          -0.4163486318886942,
          0.1249059002891886,
          0.00585311827180374,
          -0.08284198324894645
        ],
        [
          0.41077378221728333,
          0.04104362455326919,
          -0.8948659126162537,
          -0.03520045748899049,
          0.09346861651668119,
          0.13718551192797654
        ]
      ],
      "invariants": {
        "I1_trace": 3404.0054254343067,
        "I2_von_mises": 725.8242904489493,
        "det": 1.827287664272156e+16
      },
      "anisotropy": 0.7354737111551294,
      "quality_flags": {
        "monocivilizational": false,
        "low_evidence": true,
        "computed_from_imputed": true,
        "x_score_provenance": "imputed_governance",
        "diagonal_inflated_by_prior": true
      },
      "decomposition": {
        "weighted_barycentre_mu_bar": [
          73.3109711753248,
          27.9461694782668,
          50.279357180162364,
          64.42373864010725,
          47.35550828454794,
          44.28841143788203
        ],
        "intra_civilizational_covariance": [
          [
            87.04771789412055,
            -75.6730248174703,
            -28.54217816979077,
            63.91918386873755,
            6.145158380017412,
            -60.728718437257356
          ],
          [
            -75.6730248174703,
            177.12172730745868,
            31.973810464292345,
            -100.9507734734167,
            -16.57648504692176,
            -24.166098579119534
          ],
          [
            -28.54217816979077,
            31.973810464292345,
            63.70046684553225,
            -42.68989990777266,
            9.229940950326382,
            16.45334624727162
          ],
          [
            63.91918386873755,
            -100.9507734734167,
            -42.68989990777266,
            329.22752308093834,
            -26.37612137807171,
            36.592352583230316
          ],
          [
            6.145158380017412,
            -16.57648504692176,
            9.229940950326382,
            -26.37612137807171,
            201.8546785632972,
            -85.29608873577622
          ],
          [
            -60.728718437257356,
            -24.166098579119534,
            16.45334624727162,
            36.592352583230316,
            -85.29608873577622,
            202.23110573496007
          ]
        ],
        "bias_term": [
          [
            45.0194159102638,
            3.591514574783265,
            -9.082238880852625,
            -24.061989612696166,
            66.58389298419645,
            -8.295673604089309
          ],
          [
            3.591514574783265,
            0.286520308628434,
            -0.7245538986392929,
            -1.919593682968674,
            5.311864164902032,
            -0.661804069517902
          ],
          [
            -9.082238880852625,
            -0.7245538986392929,
            1.8322552929893794,
            4.854277497662464,
            -13.432666983174455,
            1.6735732311610363
          ],
          [
            -24.061989612696166,
            -1.919593682968674,
            4.854277497662464,
            12.86065872723815,
            -35.58777716157224,
            4.433873875436183
          ],
          [
            66.58389298419645,
            5.311864164902032,
            -13.432666983174455,
            -35.58777716157224,
            98.47783928978448,
            -12.26933384892219
          ],
          [
            -8.295673604089309,
            -0.661804069517902,
            1.6735732311610363,
            4.433873875436183,
            -12.26933384892219,
            1.5286337939780896
          ]
        ],
        "prior_variance_inflation": [
          [
            166.27638624154415,
            0.0,
            0.0,
            0.0,
            0.0,
            0.0
          ],
          [
            0.0,
            277.3646013920633,
            0.0,
            0.0,
            0.0,
            0.0
          ],
          [
            0.0,
            0.0,
            298.46329098361736,
            0.0,
            0.0,
            0.0
          ],
          [
            0.0,
            0.0,
            0.0,
            393.6399624091296,
            0.0,
            0.0
          ],
          [
            0.0,
            0.0,
            0.0,
            0.0,
            561.8507910353687,
            0.0
          ],
          [
            0.0,
            0.0,
            0.0,
            0.0,
            0.0,
            485.2218506233945
          ]
        ],
        "trace_intra": 1061.183219426307,
        "trace_bias": 160.00532332288233,
        "trace_prior_inflation": 2182.8168826851174
      }
    },
    {
      "iso3": "ARG",
      "M": [
        [
          475.68603706292055,
          -404.48856990101945,
          -88.31661166207766,
          -229.6949765933092,
          343.7158912590036,
          -192.09546297288657
        ],
        [
          -404.48856990101945,
          425.31744958134556,
          56.988291247603655,
          81.86870181056398,
          -219.52983879473484,
          95.4208022651708
        ],
        [
          -88.31661166207766,
          56.988291247603655,
          88.82069428228291,
          84.8188295032867,
          -69.95536764295358,
          39.06095399193764
        ],
        [
          -229.6949765933092,
          81.86870181056398,
          84.8188295032867,
          630.3977706438584,
          -396.67369608060625,
          165.3678508442564
        ],
        [
          343.7158912590036,
          -219.52983879473484,
          -69.95536764295358,
          -396.67369608060625,
          562.1191245197514,
          -234.4759415864571
        ],
        [
          -192.09546297288657,
          95.4208022651708,
          39.06095399193764,
          165.3678508442564,
          -234.4759415864571,
          256.55934203202116
        ]
      ],
      "eigenvalues": [
        1499.436393590543,
        534.832163778613,
        199.404662712418,
        121.71494613363419,
        67.67842266616319,
        15.833829240808079
      ],
      "eigenvectors": [
        [
          -0.49750153941152647,
          0.40933721089800745,
          0.1049838311528435,
          0.18601826771399466,
          -0.0020654115592415225,
          0.7343749719357597
        ],
        [
          0.36623664895406227,
          -0.6104826409963917,
          -0.2888566550885891,
          0.05622544562911552,
          0.16506242687209557,
          0.6159030681161629
        ],
        [
          0.10958962139091126,
          -0.0018576261540829513,
          -0.12042992511700193,
          -0.2444478621803921,
          -0.9437680461303927,
          0.15175775111485604
        ],
        [
          0.47938595934132155,
          0.6501626923287286,
          -0.5098068608590309,
          -0.21028312433447024,
          0.1882233828557555,
          0.08903654237328466
        ],
        [
          -0.5482260132672513,
          -0.1856709237916599,
          -0.4185829818487282,
          -0.6802309167879272,
          0.16063014493343244,
          -0.035308499353479884
        ],
        [
          0.27566354581800057,
          0.05064902371806663,
          0.6752200478892082,
          -0.6289261113055477,
          0.14429802181043885,
          0.2217029549907391
        ]
      ],
      "invariants": {
        "I1_trace": 2438.90041812218,
        "I2_von_mises": 1550.3500702663632,
        "det": 20857438441198.11
      },
      "anisotropy": 0.989440146105236,
      "quality_flags": {
        "monocivilizational": false,
        "low_evidence": false,
        "computed_from_imputed": false,
        "x_score_provenance": "observed",
        "diagonal_inflated_by_prior": false
      },
      "decomposition": {
        "weighted_barycentre_mu_bar": [
          66.6264570870418,
          33.433511109115784,
          51.29799193319812,
          67.16775716117495,
          40.20812794813389,
          54.991466859851805
        ],
        "intra_civilizational_covariance": [
          [
            164.99404762159483,
            -182.9858927310613,
            -5.436868249669969,
            102.25074365799048,
            -12.481808828228251,
            -68.5598543349542
          ],
          [
            -182.9858927310613,
            267.40080653662903,
            -2.0994408887101694,
            -154.78646861396487,
            34.41537657105662,
            7.348148418104637
          ],
          [
            -5.436868249669969,
            -2.0994408887101694,
            66.71181442201294,
            -3.730528240840628,
            25.063412984136534,
            6.106774630512499
          ],
          [
            102.25074365799048,
            -154.78646861396487,
            -3.730528240840628,
            275.7444003033812,
            -16.109323243301425,
            33.38145280503255
          ],
          [
            -12.481808828228251,
            34.41537657105662,
            25.063412984136534,
            -16.109323243301425,
            153.75068935160115,
            -92.84660716160582
          ],
          [
            -68.5598543349542,
            7.348148418104637,
            6.106774630512499,
            33.38145280503255,
            -92.84660716160582,
            207.43980525546567
          ]
        ],
        "bias_term": [
          [
            310.6919894413261,
            -221.50267716995813,
            -82.87974341240772,
            -331.94572025130003,
            356.19770008723214,
            -123.53560863793247
          ],
          [
            -221.50267716995813,
            157.9166430447164,
            59.087732136313804,
            236.65517042452885,
            -253.9452153657914,
            88.07265384706616
          ],
          [
            -82.87974341240772,
            59.087732136313804,
            22.10887986026996,
            88.54935774412735,
            -95.0187806270901,
            32.954179361425126
          ],
          [
            -331.94572025130003,
            236.65517042452885,
            88.54935774412735,
            354.65337034047747,
            -380.5643728373049,
            131.9863980392239
          ],
          [
            356.19770008723214,
            -253.9452153657914,
            -95.0187806270901,
            -380.5643728373049,
            408.36843516815014,
            -141.62933442485132
          ],
          [
            -123.53560863793247,
            88.07265384706616,
            32.954179361425126,
            131.9863980392239,
            -141.62933442485132,
            49.11953677655552
          ]
        ],
        "prior_variance_inflation": [
          [
            0.0,
            0.0,
            0.0,
            0.0,
            0.0,
            0.0
          ],
          [
            0.0,
            0.0,
            0.0,
            0.0,
            0.0,
            0.0
          ],
          [
            0.0,
            0.0,
            0.0,
            0.0,
            0.0,
            0.0
          ],
          [
            0.0,
            0.0,
            0.0,
            0.0,
            0.0,
            0.0
          ],
          [
            0.0,
            0.0,
            0.0,
            0.0,
            0.0,
            0.0
          ],
          [
            0.0,
            0.0,
            0.0,
            0.0,
            0.0,
            0.0
          ]
        ],
        "trace_intra": 1136.041563490685,
        "trace_bias": 1302.8588546314957,
        "trace_prior_inflation": 0.0
      }
    },
    {
      "iso3": "ARM",
      "M": [
        [
          279.4653420369887,
          -112.59324385628891,
          -22.22101519253795,
          64.79932603924945,
          2.7106480078703523,
          -71.42798502865496
        ],
        [
          -112.59324385628891,
          503.6323372677797,
          12.51788258731989,
          -93.00155744857449,
          19.154217662238867,
          -25.915496775939655
        ],
        [
          -22.22101519253795,
          12.51788258731989,
          368.23066833801647,
          -43.05433401690196,
          -0.7303945469371711,
          25.84282437918172
        ],
        [
          64.79932603924945,
          -93.00155744857449,
          -43.05433401690196,
          682.520293353128,
          16.845667843650485,
          2.324566082391634
        ],
        [
          2.7106480078703523,
          19.154217662238867,
          -0.7303945469371711,
          16.845667843650485,
          754.9908891515706,
          -88.29446294202074
        ],
        [
          -71.42798502865496,
          -25.915496775939655,
          25.84282437918172,
          2.324566082391634,
          -88.29446294202074,
          711.7383751950081
        ]
      ],
      "eigenvalues": [
        831.8101617550628,
        751.1946552946478,
        652.1903831300963,
        485.97727310584827,
        360.5393819219925,
        218.86605013484402
      ],
      "eigenvectors": [
        [
          -0.09530730062510256,
          0.2168646325252246,
          0.14032872411520136,
          0.2824697565799362,
          -0.03258203300400759,
          0.9183372727590079
        ],
        [
          -0.026790697101907346,
          -0.4404267417733827,
          -0.024213586141143995,
          -0.8221881481645521,
          -0.04184429550784151,
          0.35633684889028505
        ],
        [
          0.05086838588438719,
          -0.118161220074467,
          -0.06953968540929448,
          0.042043313006226726,
          0.9861585466386553,
          0.06586536467826913
        ],
        [
          -0.11528512994775011,
          0.8554550572415196,
          -0.06182491989935034,
          -0.4816545100893969,
          0.12808416176042453,
          -0.051836700791522895
        ],
        [
          -0.7598963376689737,
          -0.09014864009399268,
          -0.6360260186205225,
          0.09679957653933609,
          -0.021188051652197035,
          0.009087946588715645
        ],
        [
          0.629982602239203,
          0.07142695632747094,
          -0.7526847723348243,
          0.03299424736562933,
          -0.08845507856322066,
          0.15024254722993405
        ]
      ],
      "invariants": {
        "I1_trace": 3300.577905342492,
        "I2_von_mises": 648.0543998509949,
        "det": 1.562781176250912e+16
      },
      "anisotropy": 0.7368798071989748,
      "quality_flags": {
        "monocivilizational": false,
        "low_evidence": true,
        "computed_from_imputed": true,
        "x_score_provenance": "imputed_governance",
        "diagonal_inflated_by_prior": true
      },
      "decomposition": {
        "weighted_barycentre_mu_bar": [
          72.38234951991596,
          29.319453469725552,
          50.28185587558919,
          65.69557955318233,
          44.758134142207524,
          45.40939097980601
        ],
        "intra_civilizational_covariance": [
          [
            109.6666609592105,
            -100.93394199077744,
            -26.55580092075199,
            70.0075420469381,
            9.857767791583175,
            -77.65100707533857
          ],
          [
            -100.93394199077744,
            187.67377190861689,
            26.866646014970584,
            -110.24150056456736,
            -4.50377546486995,
            -5.316399899770175
          ],
          [
            -26.55580092075199,
            26.866646014970584,
            64.43268273535972,
            -36.64473417666747,
            8.065357732959612,
            18.184332285667256
          ],
          [
            70.0075420469381,
            -110.24150056456736,
            -36.64473417666747,
            281.17923968278353,
            6.277630414336411,
            11.526193017855569
          ],
          [
            9.857767791583175,
            -4.50377546486995,
            8.065357732959612,
            6.277630414336411,
            178.637813788024,
            -75.66727355208126
          ],
          [
            -77.65100707533857,
            -5.316399899770175,
            18.184332285667256,
            11.526193017855569,
            -75.66727355208126,
            215.52198686422648
          ]
        ],
        "bias_term": [
          [
            3.5222948362341486,
            -11.65930186551157,
            4.33478572821408,
            -5.208216007688725,
            -7.147119783712901,
            6.223022046683679
          ],
          [
            -11.65930186551157,
            38.593963967099555,
            -14.34876342765067,
            17.239943115992936,
            23.657993127108845,
            -20.59909687616945
          ],
          [
            4.33478572821408,
            -14.34876342765067,
            5.334694619039372,
            -6.409599840234501,
            -8.795752279896785,
            7.658492093514447
          ],
          [
            -5.208216007688725,
            17.239943115992936,
            -6.409599840234501,
            7.701091261214878,
            10.568037429314115,
            -9.20162693546397
          ],
          [
            -7.147119783712901,
            23.657993127108845,
            -8.795752279896785,
            10.568037429314115,
            14.502284328177874,
            -12.627189389939483
          ],
          [
            6.223022046683679,
            -20.59909687616945,
            7.658492093514447,
            -9.20162693546397,
            -12.627189389939483,
            10.994537707387073
          ]
        ],
        "prior_variance_inflation": [
          [
            166.27638624154415,
            0.0,
            0.0,
            0.0,
            0.0,
            0.0
          ],
          [
            0.0,
            277.3646013920633,
            0.0,
            0.0,
            0.0,
            0.0
          ],
          [
            0.0,
            0.0,
            298.46329098361736,
            0.0,
            0.0,
            0.0
          ],
          [
            0.0,
            0.0,
            0.0,
            393.6399624091296,
            0.0,
            0.0
          ],
          [
            0.0,
            0.0,
            0.0,
            0.0,
            561.8507910353687,
            0.0
          ],
          [
            0.0,
            0.0,
            0.0,
            0.0,
            0.0,
            485.2218506233945
          ]
        ],
        "trace_intra": 1037.1121559382211,
        "trace_bias": 80.64886671915289,
        "trace_prior_inflation": 2182.8168826851174
      }
    },
    {
      "iso3": "ATG",
      "M": [
        [
          268.39479535142993,
          -99.31672216869816,
          -17.587156799016128,
          67.0175224457995,
          11.907084610436565,
          -70.87092256886861
        ],
        [
          -99.31672216869816,
          449.5226729477149,
          14.906426258748352,
          -109.42656737507923,
          -15.115256755247112,
          8.252596272720078
        ],
        [
          -17.587156799016128,
          14.906426258748352,
          360.2850246708845,
          -32.758622233549644,
          5.819132947177419,
          13.709272924677553
        ],
        [
          67.0175224457995,
          -109.42656737507923,
          -32.758622233549644,
          633.4853093510646,
          -5.506534638839529,
          13.181863074996727
        ],
        [
          11.907084610436565,
          -15.115256755247112,
          5.819132947177419,
          -5.506534638839529,
          709.5367893209228,
          -76.46665086269276
        ],
        [
          -70.87092256886861,
          8.252596272720078,
          13.709272924677553,
          13.181863074996727,
          -76.46665086269276,
          700.1626284324267
        ]
      ],
      "eigenvalues": [
        790.770630840495,
        712.2493070065514,
        633.5062156092358,
        414.2719057451987,
        355.5334662984077,
        215.05569457455417
      ],
      "eigenvectors": [
        [
          0.13902465566942848,
          -0.21857134182175458,
          -0.09240248614212639,
          0.27296898527062324,
          0.017350012636668327,
          0.9217089585909548
        ],
        [
          -0.10732735910213254,
          0.43558110071219125,
          -0.022270892204575954,
          -0.8164378906022882,
          0.059836768644300646,
          0.357914350030875
        ],
        [
          -0.026591369759920856,
          0.10894155831195643,
          0.044785937063484625,
          0.00971035199403693,
          -0.9913690131592584,
          0.05012030107640798
        ],
        [
          0.05674714311410545,
          -0.8547475734143036,
          0.08170063490297089,
          -0.4967025350549695,
          -0.0993591939422057,
          -0.054089703237492584
        ],
        [
          0.6915172661917586,
          0.13045154083659596,
          0.7090194533703102,
          -0.03526210372783848,
          0.027857735589993715,
          0.0076296397677149234
        ],
        [
          -0.6978749991692728,
          -0.054921683740332204,
          0.6925145693452449,
          0.10424005297397872,
          0.05155303166941353,
          0.12982280891992345
        ]
      ],
      "invariants": {
        "I1_trace": 3121.3872200744436,
        "I2_von_mises": 617.7117906308454,
        "det": 1.1301871447427794e+16
      },
      "anisotropy": 0.7280428910897012,
      "quality_flags": {
        "monocivilizational": false,
        "low_evidence": true,
        "computed_from_imputed": true,
        "x_score_provenance": "imputed_governance",
        "diagonal_inflated_by_prior": true
      },
      "decomposition": {
        "weighted_barycentre_mu_bar": [
          71.7633944893082,
          28.672511814034216,
          50.70094991016254,
          65.48149028299916,
          42.33876534364412,
          49.03941350283359
        ],
        "intra_civilizational_covariance": [
          [
            101.8219490652379,
            -98.26347700903241,
            -19.588740537968633,
            66.65471366015093,
            10.724418018148892,
            -69.55471550690413
          ],
          [
            -98.26347700903241,
            168.4161664106365,
            22.01753085033451,
            -108.13760245630766,
            -10.913551040384661,
            3.5764561244632507
          ],
          [
            -19.588740537968633,
            22.01753085033451,
            48.30781322355819,
            -35.20816705017345,
            -2.165775179437146,
            22.595794733886876
          ],
          [
            66.65471366015093,
            -108.13760245630766,
            -35.20816705017345,
            239.40134034704923,
            -6.953885935992102,
            14.792641641736108
          ],
          [
            10.724418018148892,
            -10.913551040384661,
            -2.165775179437146,
            -6.953885935992102,
            142.96799228857515,
            -71.2159125294128
          ],
          [
            -69.55471550690413,
            3.5764561244632507,
            22.595794733886876,
            14.792641641736108,
            -71.2159125294128,
            209.09715381571178
          ]
        ],
        "bias_term": [
          [
            0.29646004464788284,
            -1.0532451596657488,
            2.0015837389525024,
            0.36280878564856955,
            1.1826665922876811,
            -1.3162070619644939
          ],
          [
            -1.0532451596657488,
            3.741905145015132,
            -7.111104591586151,
            -1.2889649187715355,
            -4.201705714862448,
            4.676140148256837
          ],
          [
            2.0015837389525024,
            -7.111104591586151,
            13.513920463708905,
            2.449544816623797,
            7.984908126614549,
            -8.88652180920932
          ],
          [
            0.36280878564856955,
            -1.2889649187715355,
            2.449544816623797,
            0.4440065948857697,
            1.447351297152582,
            -1.6107785667393812
          ],
          [
            1.1826665922876811,
            -4.201705714862448,
            7.984908126614549,
            1.447351297152582,
            4.718005996978943,
            -5.250738333279967
          ],
          [
            -1.3162070619644939,
            4.676140148256837,
            -8.88652180920932,
            -1.6107785667393812,
            -5.250738333279967,
            5.8436239933204
          ]
        ],
        "prior_variance_inflation": [
          [
            166.27638624154415,
            0.0,
            0.0,
            0.0,
            0.0,
            0.0
          ],
          [
            0.0,
            277.3646013920633,
            0.0,
            0.0,
            0.0,
            0.0
          ],
          [
            0.0,
            0.0,
            298.46329098361736,
            0.0,
            0.0,
            0.0
          ],
          [
            0.0,
            0.0,
            0.0,
            393.6399624091296,
            0.0,
            0.0
          ],
          [
            0.0,
            0.0,
            0.0,
            0.0,
            561.8507910353687,
            0.0
          ],
          [
            0.0,
            0.0,
            0.0,
            0.0,
            0.0,
            485.2218506233945
          ]
        ],
        "trace_intra": 910.0124151507687,
        "trace_bias": 28.55792223855703,
        "trace_prior_inflation": 2182.8168826851174
      }
    },
    {
      "iso3": "AUS",
      "M": [
        [
          429.6282458927745,
          -783.9503553285978,
          -114.13576740761195,
          126.40653015202781,
          305.81399642449014,
          -301.1732740756911
        ],
        [
          -783.9503553285978,
          1693.4787263413343,
          351.6058207963966,
          -252.38974149021777,
          -783.1703392685176,
          596.9158034216216
        ],
        [
          -114.13576740761195,
          351.6058207963966,
          220.01056659796438,
          -32.12301887200801,
          -262.77405372191976,
          164.91511431420915
        ],
        [
          126.40653015202781,
          -252.38974149021777,
          -32.12301887200801,
          161.06723597500482,
          101.62725054160825,
          -63.778206939318856
        ],
        [
          305.81399642449014,
          -783.1703392685176,
          -262.77405372191976,
          101.62725054160825,
          614.6347710021254,
          -391.43647592432774
        ],
        [
          -301.1732740756911,
          596.9158034216216,
          164.91511431420915,
          -63.778206939318856,
          -391.43647592432774,
          346.2194405951494
        ]
      ],
      "eigenvalues": [
        2825.5323149376604,
        327.602477404173,
        128.5351449664227,
        109.72173202510088,
        65.22834996272427,
        8.41896710826854
      ],
      "eigenvectors": [
        [
          -0.3526658108181317,
          -0.3982013702887754,
          -0.319433021901438,
          -0.1548332050774648,
          0.3122781494485974,
          -0.7025198040492849
        ],
        [
          0.7611812833683806,
          0.33152181519810275,
          -0.10703279303564031,
          -0.3445972097312001,
          0.2766208058829526,
          -0.3224500176935136
        ],
        [
          0.17901082583782288,
          -0.42997125373626366,
          -0.29679578173184024,
          -0.5467135753194926,
          -0.6144553119949722,
          0.13616550687325685
        ],
        [
          -0.11347278694328296,
          -0.22154019576371686,
          0.7351886723917603,
          -0.5554627936530455,
          0.282397040957074,
          0.09620020996329415
        ],
        [
          -0.3987086748148936,
          0.6543442683402342,
          0.11306418476100545,
          -0.3086448533370144,
          -0.4306080401684182,
          -0.34553803190510163
        ],
        [
          0.30387550610931396,
          -0.26345245464717015,
          0.49510897365252904,
          0.39317063418828124,
          -0.42806142513871764,
          -0.5052720592474147
        ]
      ],
      "invariants": {
        "I1_trace": 3465.038986404353,
        "I2_von_mises": 3030.534476381389,
        "det": 7168977339365.16
      },
      "anisotropy": 0.9970203960989014,
      "quality_flags": {
        "monocivilizational": false,
        "low_evidence": false,
        "computed_from_imputed": false,
        "x_score_provenance": "observed",
        "diagonal_inflated_by_prior": false
      },
      "decomposition": {
        "weighted_barycentre_mu_bar": [
          52.03317474637043,
          54.24436099169958,
          48.70020210058753,
          55.33336968794991,
          43.94793661823269,
          55.984240566429776
        ],
        "intra_civilizational_covariance": [
          [
            232.6982524306059,
            -282.1852249569792,
            58.469445859883095,
            65.59559608040223,
            -16.218408207802053,
            -90.45449799493983
          ],
          [
            -282.1852249569792,
            415.0130054494402,
            -88.18131277004731,
            -97.44733923836982,
            37.347798438368606,
            60.017729679402876
          ],
          [
            58.469445859883095,
            -88.18131277004731,
            68.72553823157297,
            21.176552513215785,
            19.480928890869208,
            -19.77569202490096
          ],
          [
            65.59559608040223,
            -97.44733923836982,
            21.176552513215785,
            142.28914312256182,
            2.1853575991632193,
            1.2906298316621108
          ],
          [
            -16.218408207802053,
            37.347798438368606,
            19.480928890869208,
            2.1853575991632193,
            88.02697596770044,
            -46.85578016812829
          ],
          [
            -90.45449799493983,
            60.017729679402876,
            -19.77569202490096,
            1.2906298316621108,
            -46.85578016812829,
            120.74640922829602
          ]
        ],
        "bias_term": [
          [
            196.9299934621687,
            -501.7651303716188,
            -172.6052132674951,
            60.810934071625795,
            322.0324046322921,
            -210.71877608075118
          ],
          [
            -501.7651303716188,
            1278.4657208918948,
            439.787133566444,
            -154.94240225184848,
            -820.5181377068864,
            536.8980737422186
          ],
          [
            -172.6052132674951,
            439.787133566444,
            151.28502836639134,
            -53.299571385223985,
            -282.25498261278887,
            184.69080633911
          ],
          [
            60.810934071625795,
            -154.94240225184848,
            -53.299571385223985,
            18.778092852443113,
            99.44189294244534,
            -65.06883677098114
          ],
          [
            322.0324046322921,
            -820.5181377068864,
            -282.25498261278887,
            99.44189294244534,
            526.6077950344247,
            -344.5806957561991
          ],
          [
            -210.71877608075118,
            536.8980737422186,
            184.69080633911,
            -65.06883677098114,
            -344.5806957561991,
            225.47303136685318
          ]
        ],
        "prior_variance_inflation": [
          [
            0.0,
            0.0,
            0.0,
            0.0,
            0.0,
            0.0
          ],
          [
            0.0,
            0.0,
            0.0,
            0.0,
            0.0,
            0.0
          ],
          [
            0.0,
            0.0,
            0.0,
            0.0,
            0.0,
            0.0
          ],
          [
            0.0,
            0.0,
            0.0,
            0.0,
            0.0,
            0.0
          ],
          [
            0.0,
            0.0,
            0.0,
            0.0,
            0.0,
            0.0
          ],
          [
            0.0,
            0.0,
            0.0,
            0.0,
            0.0,
            0.0
          ]
        ],
        "trace_intra": 1067.4993244301775,
        "trace_bias": 2397.539661974176,
        "trace_prior_inflation": 0.0
      }
    },
    {
      "iso3": "AUT",
      "M": [
        [
          329.2171489374135,
          -211.0548667861256,
          -28.470976146260583,
          7.466195007985007,
          -18.232715097334736,
          -119.69624645771678
        ],
        [
          -211.0548667861256,
          725.7251476459203,
          -9.01256423130424,
          152.84692642382822,
          105.23069681404304,
          126.9497376559904
        ],
        [
          -28.470976146260583,
          -9.01256423130424,
          411.9796356129938,
          -57.22886059195602,
          24.77725267047598,
          -0.5157698850701015
        ],
        [
          7.466195007985007,
          152.84692642382822,
          -57.22886059195602,
          1046.1581830917166,
          163.663214726393,
          159.1211970089109
        ],
        [
          -18.232715097334736,
          105.23069681404304,
          24.77725267047598,
          163.663214726393,
          825.2966299308835,
          -73.72981484017151
        ],
        [
          -119.69624645771678,
          126.9497376559904,
          -0.5157698850701015,
          159.1211970089109,
          -73.72981484017151,
          795.7470501888516
        ]
      ],
      "eigenvalues": [
        1271.6969053745934,
        901.5797836199489,
        773.0001973220374,
        565.6401379669903,
        402.5443533360068,
        219.66241778820168
      ],
      "eigenvectors": [
        [
          -0.13522827582232563,
          -0.18362348317353425,
          0.33816578256547364,
          -0.08421188210182402,
          0.09332446420361949,
          0.9043442578140231
        ],
        [
          0.410559599952806,
          0.17226410973192346,
          -0.6206577006011553,
          0.5247397078353457,
          0.020476229339411827,
          0.3752051080705887
        ],
        [
          -0.041656479588366525,
          -0.010781108822462583,
          -0.12869569041463563,
          -0.16703428971259227,
          -0.9686493944592687,
          0.1241121321364855
        ],
        [
          0.7649950994912932,
          -0.1446534167298891,
          0.5689945657527731,
          0.19500822033923212,
          -0.15253735106607244,
          -0.0938467977949233
        ],
        [
          0.3227671888593962,
          -0.6815025774461433,
          -0.39881231952539287,
          -0.50448867954653,
          0.1334634077746683,
          -0.0017330664770257164
        ],
        [
          0.34931748533837637,
          0.6716553331737027,
          -0.03254626543335088,
          -0.6301738729933812,
          0.1072823114113307,
          0.1310287904137932
        ]
      ],
      "invariants": {
        "I1_trace": 4134.12379540778,
        "I2_von_mises": 1031.5043414905215,
        "det": 4.432789435146193e+16
      },
      "anisotropy": 0.8272682611242986,
      "quality_flags": {
        "monocivilizational": false,
        "low_evidence": true,
        "computed_from_imputed": true,
        "x_score_provenance": "imputed_governance",
        "diagonal_inflated_by_prior": true
      },
      "decomposition": {
        "weighted_barycentre_mu_bar": [
          70.27402154528531,
          29.94888262951769,
          50.7975258223358,
          70.31978316969462,
          44.88993189747972,
          50.31868385175391
        ],
        "intra_civilizational_covariance": [
          [
            144.84267932790928,
            -149.4076258915449,
            -39.12875638710851,
            88.20887477706823,
            8.744925434994348,
            -83.00334361638454
          ],
          [
            -149.4076258915449,
            238.37243686971834,
            27.29087920802779,
            -122.1857015621101,
            13.337148151969918,
            1.9632308203763174
          ],
          [
            -39.12875638710851,
            27.29087920802779,
            107.2400844667506,
            -9.680304231590304,
            40.66411529368442,
            21.092313519718797
          ],
          [
            88.20887477706823,
            -122.1857015621101,
            -9.680304231590304,
            292.2933170978074,
            43.305332284346925,
            -4.580297988109674
          ],
          [
            8.744925434994348,
            13.337148151969918,
            40.66411529368442,
            43.305332284346925,
            223.23201769166218,
            -128.42554823996267
          ],
          [
            -83.00334361638454,
            1.9632308203763174,
            21.092313519718797,
            -4.580297988109674,
            -128.42554823996267,
            236.13228781066908
          ]
        ],
        "bias_term": [
          [
            18.098083367960143,
            -61.64724089458078,
            10.657780240847911,
            -80.74267976908335,
            -26.977640532329143,
            -36.69290284133234
          ],
          [
            -61.64724089458078,
            209.98810938413857,
            -36.3034434393319,
            275.03262798593806,
            91.8935486620731,
            124.986506835614
          ],
          [
            10.657780240847911,
            -36.3034434393319,
            6.276260162625764,
            -47.54855636036553,
            -15.886862623208382,
            -21.60808340478881
          ],
          [
            -80.74267976908335,
            275.03262798593806,
            -47.54855636036553,
            360.2249035847793,
            120.35788244204602,
            163.7014949970204
          ],
          [
            -26.977640532329143,
            91.8935486620731,
            -15.886862623208382,
            120.35788244204602,
            40.21382120385263,
            54.69573339979116
          ],
          [
            -36.69290284133234,
            124.986506835614,
            -21.60808340478881,
            163.7014949970204,
            54.69573339979116,
            74.39291175478797
          ]
        ],
        "prior_variance_inflation": [
          [
            166.27638624154415,
            0.0,
            0.0,
            0.0,
            0.0,
            0.0
          ],
          [
            0.0,
            277.3646013920633,
            0.0,
            0.0,
            0.0,
            0.0
          ],
          [
            0.0,
            0.0,
            298.46329098361736,
            0.0,
            0.0,
            0.0
          ],
          [
            0.0,
            0.0,
            0.0,
            393.6399624091296,
            0.0,
            0.0
          ],
          [
            0.0,
            0.0,
            0.0,
            0.0,
            561.8507910353687,
            0.0
          ],
          [
            0.0,
            0.0,
            0.0,
            0.0,
            0.0,
            485.2218506233945
          ]
        ],
        "trace_intra": 1242.112823264517,
        "trace_bias": 709.1940894581444,
        "trace_prior_inflation": 2182.8168826851174
      }
    },
    {
      "iso3": "AZE",
      "M": [
        [
          258.6312002602793,
          -66.13036911311798,
          -33.78955578482357,
          22.732154088132006,
          4.237111172437162,
          -103.28539568537002
        ],
        [
          -66.13036911311798,
          475.29198418142823,
          52.28379573639588,
          -70.6540788674501,
          -27.00509403211405,
          8.193876583372855
        ],
        [
          -33.78955578482357,
          52.28379573639588,
          417.40990712881194,
          45.24179060789876,
          -3.1531225111067736,
          119.20251149263574
        ],
        [
          22.732154088132006,
          -70.6540788674501,
          45.24179060789876,
          861.1365113748437,
          -100.20140630089139,
          218.29489041505389
        ],
        [
          4.237111172437162,
          -27.00509403211405,
          -3.1531225111067736,
          -100.20140630089139,
          776.4439679765277,
          -89.05572438650503
        ],
        [
          -103.28539568537002,
          8.193876583372855,
          119.20251149263574,
          218.29489041505389,
          -89.05572438650503,
          877.4462553956967
        ]
      ],
      "eigenvalues": [
        1158.8830221291396,
        737.6561762671555,
        706.5230773544207,
        476.864236785715,
        363.72511861191447,
        222.70819516924257
      ],
      "eigenvectors": [
        [
          -0.06751056248532845,
          0.07110084370527321,
          0.2217194242225474,
          0.12127423568099006,
          0.10419307752190198,
          0.9569032622246836
        ],
        [
          -0.02638599895720506,
          0.049062563891422356,
          -0.36152023742417283,
          -0.800305720795517,
          -0.41830615532771176,
          0.2252342680257965
        ],
        [
          0.15089502454203146,
          -0.13129250311051063,
          -0.19224634549311131,
          -0.3819702857111694,
          0.8813800308620765,
          0.01738547874729961
        ],
        [
          0.633423586258022,
          -0.03753704533649478,
          0.6994030122593989,
          -0.30843299087176806,
          -0.09386264087480402,
          -0.06526754041493638
        ],
        [
          -0.32491216897253034,
          -0.9172330012718926,
          0.1972463541070872,
          -0.08900748076559155,
          -0.07693622247746125,
          0.019185037436659103
        ],
        [
          0.6820435744188179,
          -0.36410768335883525,
          -0.505088368242306,
          0.3095945289654614,
          -0.15034502495239177,
          0.16933841526986135
        ]
      ],
      "invariants": {
        "I1_trace": 3666.3598263175872,
        "I2_von_mises": 912.619875925378,
        "det": 2.3330507231630916e+16
      },
      "anisotropy": 0.8078251290970891,
      "quality_flags": {
        "monocivilizational": false,
        "low_evidence": true,
        "computed_from_imputed": true,
        "x_score_provenance": "imputed_governance",
        "diagonal_inflated_by_prior": true
      },
      "decomposition": {
        "weighted_barycentre_mu_bar": [
          72.82921211825433,
          31.79745435362186,
          51.26411488278055,
          57.313381892578974,
          48.679626192717194,
          39.83791664168746
        ],
        "intra_civilizational_covariance": [
          [
            86.69834806215974,
            -59.9074345391568,
            -13.588355022291127,
            48.82762089116823,
            1.8704501931452207,
            -70.0303556470573
          ],
          [
            -59.9074345391568,
            191.08125041464675,
            30.05953917306222,
            -99.36288465518734,
            -24.401423021637882,
            -28.391500222849473
          ],
          [
            -13.588355022291127,
            30.05953917306222,
            46.80112541281308,
            -47.954167420865744,
            5.2990442563696485,
            0.43723555226135247
          ],
          [
            48.82762089116823,
            -99.36288465518734,
            -47.954167420865744,
            347.10806030580017,
            -89.2830831830156,
            64.87651929507139
          ],
          [
            1.8704501931452207,
            -24.401423021637882,
            5.2990442563696485,
            -89.2830831830156,
            213.60296781873114,
            -75.14184136702416
          ],
          [
            -70.0303556470573,
            -28.391500222849473,
            0.43723555226135247,
            64.87651929507139,
            -75.14184136702416,
            196.7140461067071
          ]
        ],
        "bias_term": [
          [
            5.656465956575376,
            -6.222934573961164,
            -20.201200762532405,
            -26.095466803036178,
            2.3666609792919493,
            -33.25504003831268
          ],
          [
            -6.222934573961164,
            6.846132374718055,
            22.22425656333363,
            28.70880578773721,
            -2.6036710104761687,
            36.58537680622229
          ],
          [
            -20.201200762532405,
            22.22425656333363,
            72.14549073238143,
            93.19595802876442,
            -8.452166767476438,
            118.76527594037431
          ],
          [
            -26.095466803036178,
            28.70880578773721,
            93.19595802876442,
            120.3884886599138,
            -10.91832311787576,
            153.41837111998242
          ],
          [
            2.3666609792919493,
            -2.6036710104761687,
            -8.452166767476438,
            -10.91832311787576,
            0.9902091224277821,
            -13.913883019480929
          ],
          [
            -33.25504003831268,
            36.58537680622229,
            118.76527594037431,
            153.41837111998242,
            -13.913883019480929,
            195.510358665595
          ]
        ],
        "prior_variance_inflation": [
          [
            166.27638624154415,
            0.0,
            0.0,
            0.0,
            0.0,
            0.0
          ],
          [
            0.0,
            277.3646013920633,
            0.0,
            0.0,
            0.0,
            0.0
          ],
          [
            0.0,
            0.0,
            298.46329098361736,
            0.0,
            0.0,
            0.0
          ],
          [
            0.0,
            0.0,
            0.0,
            393.6399624091296,
            0.0,
            0.0
          ],
          [
            0.0,
            0.0,
            0.0,
            0.0,
            561.8507910353687,
            0.0
          ],
          [
            0.0,
            0.0,
            0.0,
            0.0,
            0.0,
            485.2218506233945
          ]
        ],
        "trace_intra": 1082.005798120858,
        "trace_bias": 401.53714551161147,
        "trace_prior_inflation": 2182.8168826851174
      }
    },
    {
      "iso3": "BDI",
      "M": [
        [
          659.0151091282384,
          -21.300620467802787,
          13.61179890118054,
          669.2522240742691,
          331.48757427822164,
          33.61155109892127
        ],
        [
          -21.300620467802787,
          570.0718881615239,
          -2.3093458918400733,
          163.3285127713706,
          83.08558715791719,
          96.45088800558744
        ],
        [
          13.61179890118054,
          -2.3093458918400733,
          338.12007941847247,
          -10.444931361266766,
          8.55109173203005,
          -1.7941841578148092
        ],
        [
          669.2522240742691,
          163.3285127713706,
          -10.444931361266766,
          1858.6378640225896,
          519.8766702965572,
          367.0116169238355
        ],
        [
          331.48757427822164,
          83.08558715791719,
          8.55109173203005,
          519.8766702965572,
          1043.221293503247,
          46.23511055034839
        ],
        [
          33.61155109892127,
          96.45088800558744,
          -1.7941841578148092,
          367.0116169238355,
          46.23511055034839,
          800.6424078793988
        ]
      ],
      "eigenvalues": [
        2510.3221695760258,
        898.6861290002496,
        693.9678417704914,
        532.755258429487,
        341.5535167493223,
        292.4237265878937
      ],
      "eigenvectors": [
        [
          -0.3672157800150141,
          -0.20235525691412587,
          0.29973714115432315,
          0.12816167116762325,
          -0.23291430074319622,
          -0.8146705356600584
        ],
        [
          -0.0911821191088723,
          0.1486092365389779,
          -0.4383273725730552,
          -0.8364341898559636,
          -0.10374061177921907,
          -0.2590095788402262
        ],
        [
          0.0003816431025439066,
          -0.022403435045539002,
          -0.006176690834424292,
          0.030776522704553073,
          -0.9586289623053849,
          0.28203387600881624
        ],
        [
          -0.8183615542012405,
          0.23753999149021085,
          0.3153539501901766,
          -0.1613002697421435,
          0.09662275884944753,
          0.3729038355944417
        ],
        [
          -0.3843783437670887,
          -0.6808514276151499,
          -0.5790200665673583,
          0.17353224477337134,
          0.06562505857103641,
          0.137877832087238
        ],
        [
          -0.19843362078922844,
          0.6453540244469873,
          -0.5322370315639022,
          0.47631294412262565,
          -0.048751623215565656,
          -0.17780686712746316
        ]
      ],
      "invariants": {
        "I1_trace": 5269.70864211347,
        "I2_von_mises": 2274.4139672229912,
        "det": 8.330593815931938e+16
      },
      "anisotropy": 0.8835114750879638,
      "quality_flags": {
        "monocivilizational": false,
        "low_evidence": true,
        "computed_from_imputed": true,
        "x_score_provenance": "imputed_governance",
        "diagonal_inflated_by_prior": true
      },
      "decomposition": {
        "weighted_barycentre_mu_bar": [
          66.28861184988118,
          36.974561974657675,
          52.122880444009105,
          53.744959409519126,
          46.03023620607509,
          46.99110063274803
        ],
        "intra_civilizational_covariance": [
          [
            170.27761153289563,
            -142.8490222858054,
            11.030020029338294,
            39.70001429700456,
            22.041509749329837,
            -124.22952876989088
          ],
          [
            -142.8490222858054,
            246.89086592266625,
            -3.282520903246647,
            -73.97472245646084,
            -33.55692652209479,
            36.95431516697307
          ],
          [
            11.030020029338294,
            -3.282520903246647,
            39.63611747048638,
            -15.485429383185513,
            6.073517589767482,
            -3.057935818916514
          ],
          [
            39.70001429700456,
            -73.97472245646084,
            -15.485429383185513,
            235.90090082633563,
            -84.2658041654161,
            58.85290529546109
          ],
          [
            22.041509749329837,
            -33.55692652209479,
            6.073517589767482,
            -84.2658041654161,
            184.41417663249283,
            -105.23525057733629
          ],
          [
            -124.22952876989088,
            36.95431516697307,
            -3.057935818916514,
            58.85290529546109,
            -105.23525057733629,
            238.159127530242
          ]
        ],
        "bias_term": [
          [
            322.46111135379846,
            121.54840181800259,
            2.5817788718423795,
            629.5522097772645,
            309.44606452889184,
            157.84107986881213
          ],
          [
            121.54840181800259,
            45.81642084679426,
            0.9731750114066287,
            237.3032352278315,
            116.64251368001197,
            59.4965728386144
          ],
          [
            2.5817788718423795,
            0.9731750114066287,
            0.02067096436871842,
            5.0404980219189985,
            2.477574142262707,
            1.2637516611017672
          ],
          [
            629.5522097772645,
            237.3032352278315,
            5.0404980219189985,
            1229.097000787125,
            604.1424744619736,
            308.1587116283746
          ],
          [
            309.44606452889184,
            116.64251368001197,
            2.477574142262707,
            604.1424744619736,
            296.9563258353854,
            151.47036112768473
          ],
          [
            157.84107986881213,
            59.4965728386144,
            1.2637516611017672,
            308.1587116283746,
            151.47036112768473,
            77.26142972576237
          ]
        ],
        "prior_variance_inflation": [
          [
            166.27638624154415,
            0.0,
            0.0,
            0.0,
            0.0,
            0.0
          ],
          [
            0.0,
            277.3646013920633,
            0.0,
            0.0,
            0.0,
            0.0
          ],
          [
            0.0,
            0.0,
            298.46329098361736,
            0.0,
            0.0,
            0.0
          ],
          [
            0.0,
            0.0,
            0.0,
            393.6399624091296,
            0.0,
            0.0
          ],
          [
            0.0,
            0.0,
            0.0,
            0.0,
            561.8507910353687,
            0.0
          ],
          [
            0.0,
            0.0,
            0.0,
            0.0,
            0.0,
            485.2218506233945
          ]
        ],
        "trace_intra": 1115.2787999151187,
        "trace_bias": 1971.6129595132343,
        "trace_prior_inflation": 2182.8168826851174
      }
    },
    {
      "iso3": "BEL",
      "M": [
        [
          360.2049187259488,
          -267.93097677170925,
          -24.34629549851413,
          -37.5372665134236,
          -25.59516608627354,
          -142.9697537274497
        ],
        [
          -267.93097677170925,
          822.8746526744437,
          -13.899254946179733,
          245.43487058019107,
          104.965301149502,
          172.35576860955337
        ],
        [
          -24.34629549851413,
          -13.899254946179733,
          420.4584905012716,
          -51.73134065791022,
          40.43626577708931,
          -6.0046106071913
        ],
        [
          -37.5372665134236,
          245.43487058019107,
          -51.73134065791022,
          1187.535994063777,
          155.19403010532602,
          214.24503235349712
        ],
        [
          -25.59516608627354,
          104.965301149502,
          40.43626577708931,
          155.19403010532602,
          817.566682420193,
          -84.22947083983316
        ],
        [
          -142.9697537274497,
          172.35576860955337,
          -6.0046106071913,
          214.24503235349712,
          -84.22947083983316,
          818.9569946140559
        ]
      ],
      "eigenvalues": [
        1500.4441168734656,
        917.2683905121706,
        805.3219527089967,
        574.9168172617508,
        409.49405483908663,
        220.15240080421907
      ],
      "eigenvectors": [
        [
          -0.1857635626253999,
          -0.1864297022959908,
          0.34323395453974437,
          -0.057180336474617566,
          0.0903202144422785,
          0.8952647571178632
        ],
        [
          0.4716460415839504,
          0.171595455751745,
          -0.6197058302746569,
          0.4525169306266529,
          0.011105623774440345,
          0.39896715098358054
        ],
        [
          -0.032331161302402524,
          -0.03307475475588995,
          -0.1184061119262191,
          -0.19514271191908342,
          -0.9654699088113098,
          0.1167387100748458
        ],
        [
          0.7511867686892819,
          -0.2629277634523152,
          0.5603261973162896,
          0.1666389913149453,
          -0.12943128796315723,
          -0.09000539218803327
        ],
        [
          0.20266907730614014,
          -0.7060293885210525,
          -0.41063969372670883,
          -0.5122249812767204,
          0.1715879286468386,
          0.0024373927159012845
        ],
        [
          0.3696488738218768,
          0.6058849065751424,
          0.03930297151901973,
          -0.6809810377179017,
          0.11572339263281617,
          0.13263253432935068
        ]
      ],
      "invariants": {
        "I1_trace": 4427.59773299969,
        "I2_von_mises": 1237.3371541516972,
        "det": 5.744626935211295e+16
      },
      "anisotropy": 0.8532751747776124,
      "quality_flags": {
        "monocivilizational": false,
        "low_evidence": true,
        "computed_from_imputed": true,
        "x_score_provenance": "imputed_governance",
        "diagonal_inflated_by_prior": true
      },
      "decomposition": {
        "weighted_barycentre_mu_bar": [
          69.3017230745272,
          31.059879930028323,
          51.082643523112324,
          70.21560333979896,
          44.657950145840545,
          51.05880913397609
        ],
        "intra_civilizational_covariance": [
          [
            158.73120112311398,
            -167.59099259313484,
            -37.85904810031194,
            94.71798024712017,
            3.85317577512029,
            -84.5354350792442
          ],
          [
            -167.59099259313484,
            259.46244382003476,
            24.622682082391197,
            -131.59625235548282,
            21.014443451602972,
            5.7721561060479765
          ],
          [
            -37.85904810031194,
            24.622682082391197,
            116.8074629531087,
            -0.956683584607094,
            51.74190011685107,
            16.429149590214408
          ],
          [
            94.71798024712017,
            -131.59625235548282,
            -0.956683584607094,
            296.94215421014604,
            44.5408195084906,
            -5.324035334459563
          ],
          [
            3.85317577512029,
            21.014443451602972,
            51.74190011685107,
            44.5408195084906,
            231.07752237088096,
            -133.1193646311129
          ],
          [
            -84.5354350792442,
            5.7721561060479765,
            16.429149590214408,
            -5.324035334459563,
            -133.1193646311129,
            236.72297108384566
          ]
        ],
        "bias_term": [
          [
            35.19733136129073,
            -100.33998417857454,
            13.512752601797882,
            -132.25524676054394,
            -29.448341861393853,
            -58.43431864820555
          ],
          [
            -100.33998417857454,
            286.04760746234535,
            -38.52193702857108,
            377.0311229356738,
            83.95085769789894,
            166.58361250350526
          ],
          [
            13.512752601797882,
            -38.52193702857108,
            5.187736564545599,
            -50.774657073303324,
            -11.305634339761797,
            -22.43376019740578
          ],
          [
            -132.25524676054394,
            377.0311229356738,
            -50.774657073303324,
            496.9538774445012,
            110.65321059683535,
            219.56906768795656
          ],
          [
            -29.448341861393853,
            83.95085769789894,
            -11.305634339761797,
            110.65321059683535,
            24.638369013943343,
            48.889893791279626
          ],
          [
            -58.43431864820555,
            166.58361250350526,
            -22.43376019740578,
            219.56906768795656,
            48.889893791279626,
            97.0121729068157
          ]
        ],
        "prior_variance_inflation": [
          [
            166.27638624154415,
            0.0,
            0.0,
            0.0,
            0.0,
            0.0
          ],
          [
            0.0,
            277.3646013920633,
            0.0,
            0.0,
            0.0,
            0.0
          ],
          [
            0.0,
            0.0,
            298.46329098361736,
            0.0,
            0.0,
            0.0
          ],
          [
            0.0,
            0.0,
            0.0,
            393.6399624091296,
            0.0,
            0.0
          ],
          [
            0.0,
            0.0,
            0.0,
            0.0,
            561.8507910353687,
            0.0
          ],
          [
            0.0,
            0.0,
            0.0,
            0.0,
            0.0,
            485.2218506233945
          ]
        ],
        "trace_intra": 1299.74375556113,
        "trace_bias": 945.0370947534419,
        "trace_prior_inflation": 2182.8168826851174
      }
    },
    {
      "iso3": "BEN",
      "M": [
        [
          292.6845436187047,
          -65.87586771182303,
          -28.68584706493666,
          120.284628863694,
          60.84377638743648,
          -80.62363837322319
        ],
        [
          -65.87586771182303,
          546.7412651224653,
          -50.77194850345791,
          72.97352602854274,
          149.0922292561321,
          -16.621020000768308
        ],
        [
          -28.68584706493666,
          -50.77194850345791,
          376.971742022872,
          -131.38422244799315,
          -98.408704364985,
          35.42635647469008
        ],
        [
          120.284628863694,
          72.97352602854274,
          -131.38422244799315,
          905.6678968107901,
          223.22063444705378,
          -17.9368357127636
        ],
        [
          60.84377638743648,
          149.0922292561321,
          -98.408704364985,
          223.22063444705378,
          942.8501313123872,
          -119.95969017484941
        ],
        [
          -80.62363837322319,
          -16.621020000768308,
          35.42635647469008,
          -17.9368357127636,
          -119.95969017484941,
          705.6215354262451
        ]
      ],
      "eigenvalues": [
        1259.0390350391394,
        762.5348004839825,
        664.4686919605605,
        512.3878939057605,
        338.0698625042975,
        234.03683041972417
      ],
      "eigenvectors": [
        [
          -0.12821763689558152,
          0.036230556502479305,
          0.2544140854254445,
          0.21601675353320934,
          0.0494181464165968,
          0.931888226398042
        ],
        [
          -0.2149635856361798,
          -0.09726377998583066,
          -0.3727858899453982,
          -0.8460527734906269,
          -0.11083784409435869,
          0.27797620580951526
        ],
        [
          0.19342733408079807,
          -0.06181393073960743,
          -0.041533088474578476,
          0.1238235637482056,
          -0.9683687075888643,
          0.06300538216726667
        ],
        [
          -0.6101394350659969,
          0.6801811184883066,
          0.3026986998519541,
          -0.08394655615938659,
          -0.19961198433180344,
          -0.16298786567526294
        ],
        [
          -0.6959464414759324,
          -0.41254090487383555,
          -0.4248317305646382,
          0.39985436726026063,
          -0.04683820955621747,
          -0.0539371876981239
        ],
        [
          0.2081470183405903,
          0.5937758749753825,
          -0.7228213152431966,
          0.23509285913093872,
          0.07413570746018643,
          0.1444632124392015
        ]
      ],
      "invariants": {
        "I1_trace": 3770.5371143134644,
        "I2_von_mises": 1002.699899004503,
        "det": 2.5862047901491784e+16
      },
      "anisotropy": 0.8141147145509681,
      "quality_flags": {
        "monocivilizational": false,
        "low_evidence": true,
        "computed_from_imputed": true,
        "x_score_provenance": "imputed_governance",
        "diagonal_inflated_by_prior": true
      },
      "decomposition": {
        "weighted_barycentre_mu_bar": [
          69.25298598496047,
          31.7654815426569,
          52.58091381961432,
          59.92136812351489,
          41.527252856884864,
          51.2285907405509
        ],
        "intra_civilizational_covariance": [
          [
            113.39894490586019,
            -102.31201141196306,
            -6.321298241331276,
            59.24431139445798,
            4.861850574003107,
            -71.55546610461533
          ],
          [
            -102.31201141196306,
            167.32647655219606,
            11.866579118670272,
            -97.9879202325418,
            -7.701696436815293,
            8.777076048899296
          ],
          [
            -6.321298241331276,
            11.866579118670272,
            40.06084745165389,
            -26.44788112366366,
            -2.1684042041532687,
            19.836974574013627
          ],
          [
            59.24431139445798,
            -97.9879202325418,
            -26.44788112366366,
            225.62163848137553,
            -39.45126300483066,
            24.611790144695085
          ],
          [
            4.861850574003107,
            -7.701696436815293,
            -2.1684042041532687,
            -39.45126300483066,
            140.094979256348,
            -80.93705538242264
          ],
          [
            -71.55546610461533,
            8.777076048899296,
            19.836974574013627,
            24.611790144695085,
            -80.93705538242264,
            214.078645118507
          ]
        ],
        "bias_term": [
          [
            13.009212471300435,
            36.43614370014008,
            -22.364548823605414,
            61.040317469236136,
            55.98192581343348,
            -9.06817226860788
          ],
          [
            36.43614370014008,
            102.05018717820575,
            -62.6385276221281,
            170.96144626108443,
            156.79392569294728,
            -25.398096049667597
          ],
          [
            -22.364548823605414,
            -62.6385276221281,
            38.44760358760069,
            -104.93634132432945,
            -96.24030016083171,
            15.58938190067647
          ],
          [
            61.040317469236136,
            170.96144626108443,
            -104.93634132432945,
            286.40629592028495,
            262.67189745188443,
            -42.54862585745873
          ],
          [
            55.98192581343348,
            156.79392569294728,
            -96.24030016083171,
            262.67189745188443,
            240.9043610206705,
            -39.02263479242681
          ],
          [
            -9.06817226860788,
            -25.398096049667597,
            15.58938190067647,
            -42.54862585745873,
            -39.02263479242681,
            6.321039684343697
          ]
        ],
        "prior_variance_inflation": [
          [
            166.27638624154415,
            0.0,
            0.0,
            0.0,
            0.0,
            0.0
          ],
          [
            0.0,
            277.3646013920633,
            0.0,
            0.0,
            0.0,
            0.0
          ],
          [
            0.0,
            0.0,
            298.46329098361736,
            0.0,
            0.0,
            0.0
          ],
          [
            0.0,
            0.0,
            0.0,
            393.6399624091296,
            0.0,
            0.0
          ],
          [
            0.0,
            0.0,
            0.0,
            0.0,
            561.8507910353687,
            0.0
          ],
          [
            0.0,
            0.0,
            0.0,
            0.0,
            0.0,
            485.2218506233945
          ]
        ],
        "trace_intra": 900.5815317659407,
        "trace_bias": 687.1386998624059,
        "trace_prior_inflation": 2182.8168826851174
      }
    },
    {
      "iso3": "BFA",
      "M": [
        [
          331.38076282402363,
          -24.526667843851495,
          -33.47324349232237,
          232.48078677558226,
          118.04192711567114,
          -72.68420219204586
        ],
        [
          -24.526667843851495,
          644.0580844189851,
          -55.424992724864985,
          300.0839124964096,
          204.88128553551445,
          49.70650068940561
        ],
        [
          -33.47324349232237,
          -55.424992724864985,
          363.14095241965134,
          -174.26364491896058,
          -87.72962401126263,
          -5.689855540768798
        ],
        [
          232.48078677558226,
